#include "lenet.h"

const PARA_DTYPE weight_l1[C1_OUT_CHANNELS][C1_FLITER_SIZE][C1_FLITER_SIZE] = {
		-49,24,-178,-124,-160,134,158,130,-44,-328,318,304,35,123,278,390,395,517,329,450,80,153,46,444,518,-181,-219,-73,73,455,45,-294,-121,130,426,-290,57,-180,27,428,-59,-231,144,23,331,-133,-135,239,412,187,-149,-134,-159,-169,-129,57,-52,132,194,-126,-116,156,-205,-170,-135,3,37,100,-156,197,81,-58,0,1,221,-75,-191,-195,-138,183,27,-151,-61,59,271,38,80,-126,-4,44,53,-186,-191,205,82,-109,72,-56,-162,264,-72,94,141,-101,-122,-194,-168,-91,44,-36,-36,-128,59,86,-156,-204,-110,-82,-186,-18,-33,-1,92,-15,-39,-152,-213,10,-56,-199,-52,-117,-338,-273,-328,-123,15,-265,-195,-173,172,171,223,402,448,446,224,409,258,269,-24,264,-105,191,82,331,239,308,91,397,144,34,-31,260,457,-84,21,-129,188,339,-212,30,-56,189,-22,418,531,396,231,-14,145,251,113,-12,-17,157,345,346,-145,104,152,436,221,165,93,298,369,38,-168,-186,326,416,482,243,267,355,494,217,-155,-22,118,291,29,-1,-264,164,344,-45,69,-239,180,-54,-163,-124,-165,7,-182,45,121,263,-133,-215,-230,-151,176,252,163,167,-165,142,-90,29,136,-148,-40,-76,235,98,-181,148,171,345,192,182,410,437,277,293,298,83,0,213,132,80,-7,-237,-289,-126,25,31,-442,-367,-321,-221,-181,189,-183,-93,-56,146,-74,-101,21,-6,149,150,197,219,-121,-127,141,2,-60,158,-164,-236,-199,100,-119,34,-160,150,245,411,163,-92,268,573,645,381,255,244,545,690,437,384,166,363,323,386,272,379,115,296,340,-138,-87,-218,-106,-263,-188,-78,-35,-4,145,-64,2,-18,-104,-88,-121,-151,116,83,33,106,251,56,113,-15,597,562,469,339,113,485,340,644,524,272,371,94,367,220,387,-119,-54,-20,-131,2,-113,89,-211,-57,-12,-104,-160,78,119,-15,-167,99,-54,-95,-101,-178,176,-127,-28,-191,-80,128,-48,57,7,-65,-154,73,-178,-91
};
const PARA_DTYPE bias_l1[C1_OUT_CHANNELS] = {
		38,95,-37,-41,-196,53,14,0,22,120,12,226,14,310,15,-56
};
const PARA_DTYPE weight_l2[C2_OUT_CHANNELS][C1_OUT_CHANNELS][C2_FLITER_SIZE][C2_FLITER_SIZE] = {
		141,145,204,-191,-258,-155,-37,34,12,81,31,5,-3,-55,-49,4,118,-24,-46,35,-12,-70,8,58,26,99,16,-15,-27,122,-76,-84,-16,-52,51,-66,51,20,-81,7,-35,14,-2,-68,-3,-55,124,99,-118,-61,-76,98,70,-3,141,101,1,-41,-3,14,-119,-107,-34,158,39,31,-36,55,23,-254,9,76,134,85,-158,19,105,100,-251,-38,17,80,-100,16,4,-69,-64,36,55,-7,161,135,-70,63,136,179,-114,-104,-5,-36,-12,13,13,-61,-67,-7,-105,-9,258,54,121,-152,-195,-19,-346,38,72,-57,-98,32,67,27,5,62,29,-46,182,54,-47,76,82,161,-401,-174,-152,60,2,-32,-33,72,70,-9,28,62,-25,-36,-57,-128,-57,-135,-47,-46,-66,21,299,-57,81,147,-95,253,-4,83,-32,-22,42,-17,-31,-8,-45,-41,45,-24,95,22,38,11,-44,11,90,18,27,42,20,68,37,-46,19,-17,85,-2,26,-58,-151,-164,-163,-109,-170,-23,-168,150,-103,136,-7,-75,55,-92,-153,-133,128,215,-89,255,91,17,282,-169,-2,1,113,-50,259,112,-14,219,-128,-15,75,-18,-72,31,-99,-13,16,-93,-61,-55,-136,-94,27,-41,-111,-92,-190,-77,-114,-36,14,-6,64,36,6,-78,-305,91,38,-2,358,-200,155,6,-188,6,-39,-69,92,-20,-7,36,-73,-42,-227,-134,109,-134,151,-21,-80,149,-178,-6,67,81,32,11,29,82,-24,45,42,104,128,1,-44,-184,-10,37,-30,-15,1,109,-92,-72,-28,-129,23,-17,50,55,61,-40,-33,-4,-40,92,67,-5,32,-38,-68,29,78,-126,-21,-12,26,-46,-4,-54,57,-3,-47,2,-58,123,249,79,-42,55,-38,51,67,-7,-55,-22,99,121,182,94,7,-100,-151,-52,-59,-65,57,-48,81,-118,-132,-85,-66,-9,-12,38,70,276,-123,-102,-127,-94,-4,76,-36,-45,-22,-73,-64,-87,-49,-83,-70,119,361,228,-5,-71,-128,0,0,23,54,55,-53,30,-4,-52,-29,31,42,99,70,118,-106,-128,-187,40,-6,0,-2,84,3,105,117,115,-60,-109,-61,150,395,298,51,-57,-278,-7,-33,39,28,-14,55,-77,-63,74,114,102,82,-62,-71,-123,99,39,-99,-67,-215,-86,-109,-90,109,30,66,-32,36,-49,-42,59,-67,-85,44,-67,2,6,32,56,-91,-76,13,-54,47,-8,-47,-28,65,-70,64,14,80,85,55,71,69,6,89,161,-64,189,-15,-143,-10,154,73,-36,-51,80,-52,103,-8,-52,35,54,-101,-220,7,46,-5,9,-5,191,49,-104,-189,23,-96,51,81,44,40,-3,49,95,0,-34,96,-75,71,261,146,126,23,123,-85,33,-7,13,119,76,66,83,-61,-7,-32,21,94,177,58,-322,-226,30,62,241,-79,18,-98,-71,75,121,-30,16,-43,-12,45,362,195,-67,-61,98,-32,87,-68,-42,28,70,-1,-48,30,0,-32,-42,70,135,3,-77,32,100,70,44,-16,71,96,48,-151,472,-64,64,228,-53,-66,52,19,81,-2,-22,25,3,-22,-42,43,-27,-15,55,47,30,109,-65,30,-61,-61,8,-55,-73,-72,20,11,22,46,-17,-57,-195,-88,108,-163,-138,15,139,-1,-97,67,-106,54,126,-47,124,-69,92,2,52,317,-5,71,147,16,0,-29,252,-44,341,-169,68,183,43,36,74,-23,126,-43,-59,98,-142,-30,-118,-134,135,-133,-73,-36,-121,17,-85,-20,-4,70,-9,-10,53,15,-11,63,89,137,-43,166,313,-50,312,-71,32,-105,-107,53,21,-82,88,-62,-120,47,22,15,93,-51,172,-159,29,156,14,40,5,-5,-9,-19,77,-29,-9,30,265,37,0,72,197,198,141,19,31,-107,-78,-117,-102,66,-70,-101,-14,89,-47,-97,-54,-52,-71,77,-15,83,-62,-123,-65,82,-145,26,64,-99,-74,-62,-4,-19,-84,48,29,30,34,84,150,192,139,69,224,145,88,216,-72,41,150,43,-63,35,49,69,26,46,-96,122,-59,-32,-15,-60,12,10,46,-73,89,-51,35,-26,-96,-6,-2,89,33,60,105,64,82,95,7,-16,102,95,189,93,115,-6,60,44,160,222,81,99,119,46,93,92,56,110,-1,80,269,-75,-126,-14,53,45,189,65,1,-5,-29,23,80,12,-22,-6,10,-95,211,139,13,-30,-61,45,223,148,-82,4,-26,-15,50,-8,56,30,9,-40,-76,39,21,-31,-34,-64,75,-74,66,0,-30,-51,-69,57,82,-83,-56,-6,70,-59,-77,13,-13,11,45,79,72,-51,15,37,-27,65,75,63,67,82,-85,47,-35,82,45,1,-64,10,17,10,-80,33,-21,-8,-20,53,25,-46,7,-17,-9,-63,-42,12,-55,-44,-14,-66,33,-36,-16,-24,-14,-18,-72,49,5,82,26,51,-4,-63,71,-18,79,19,-78,31,12,-22,-51,81,-81,-22,70,-17,-76,-47,28,-38,34,52,4,37,-80,42,-78,63,-58,-27,13,24,-84,14,5,24,8,-36,-46,41,15,38,-37,-74,28,-83,-78,-43,-8,23,-75,16,-8,-65,0,-72,42,59,-53,-21,19,80,-32,32,38,50,-70,-169,12,237,133,-77,-52,-3,53,-72,-62,39,-97,-124,-28,65,-54,-67,-44,-87,-57,1,-32,51,-66,19,-29,-11,85,43,-63,-58,29,16,-41,-107,82,37,-11,-22,-36,-80,46,-41,13,-21,-34,-31,76,90,150,-38,36,48,23,-36,157,60,-132,-70,77,96,51,-33,-138,-25,19,-107,-148,-99,81,69,-67,-25,-26,-97,-244,-127,-8,58,111,-17,-55,-48,4,14,77,53,43,64,58,48,70,57,-89,48,100,76,152,-2,32,25,56,-55,49,-70,71,44,28,-154,84,208,-196,-246,78,241,85,35,42,-35,25,-40,-28,86,-66,-62,82,8,208,138,-127,-219,-5,196,250,68,-50,-9,82,-30,-6,78,67,39,-3,-58,42,48,-67,-161,-37,257,432,281,-13,-6,-79,51,-110,115,47,15,9,61,46,61,-86,-68,12,-10,-65,41,-14,24,-36,2,21,2,35,65,5,-1,-53,82,19,28,30,-64,-61,36,-68,77,50,-17,-24,-60,45,275,117,-9,19,-60,-15,-26,49,208,76,-4,-95,-32,-89,22,27,-94,140,101,66,-86,-63,-16,-102,97,-94,-23,-117,-38,-30,-40,65,93,-72,-46,87,89,-23,-104,15,24,35,35,13,36,-123,-58,-10,-52,82,74,53,58,76,46,125,-139,82,73,-82,-38,-167,340,253,233,65,57,77,5,-74,-78,-76,65,38,-173,-155,-9,-64,116,34,188,-17,-62,42,-76,11,-54,-82,35,31,-9,68,256,192,68,-56,127,-103,8,-13,-72,27,-16,-7,113,164,119,215,57,-21,69,16,5,-43,29,53,56,-49,58,2,0,15,81,-11,-59,128,-80,13,18,-51,-22,-50,-3,47,-15,41,-71,112,14,45,-164,-194,-83,-147,-137,14,151,129,-8,113,29,-23,107,-74,9,47,211,-55,15,330,-21,-125,335,-153,59,29,-40,159,301,-66,-100,157,3,80,36,46,19,65,3,129,13,89,68,-100,-154,119,-81,-122,-74,0,-59,-20,41,3,54,-78,67,15,34,-64,311,180,26,199,386,-158,13,44,-121,81,9,-33,-24,-171,-4,-36,-50,-74,209,170,-25,188,302,-127,-78,108,-109,-65,-66,35,-78,38,-6,10,21,13,32,45,-61,53,70,39,-124,-153,-159,82,-64,10,-7,-45,-22,-106,-52,-146,-56,-74,-6,36,17,58,32,33,-52,84,-32,37,29,20,70,-38,30,29,-40,-41,16,82,22,-64,-60,68,-50,-47,-33,82,51,40,114,-82,-93,-116,-24,-62,-153,29,109,139,-59,15,-134,-33,-32,-62,138,78,-25,0,-6,32,8,40,-134,97,-40,104,64,-24,11,-54,-86,-1,-110,0,-7,14,51,-7,-58,-97,-36,63,138,193,31,110,-4,13,51,45,-65,-52,97,-60,11,75,126,-20,-180,268,139,95,-195,-104,-7,-19,85,50,-119,21,-73,41,8,-70,2,-27,-221,197,117,132,12,-9,-88,-29,-39,1,65,16,33,-62,-23,38,-108,13,-43,-71,-79,179,14,-32,45,-14,247,112,-145,181,-19,63,57,55,-50,32,16,-14,-75,-31,34,-18,-56,37,130,-39,-85,52,58,-112,-68,-48,-1,30,20,77,-8,-66,3,-46,11,-113,-141,-78,120,-117,45,21,31,-21,55,132,53,-146,77,-2,63,-52,-8,57,57,316,4,-66,52,43,-89,-53,49,113,218,-53,21,20,82,-29,-76,15,53,21,-99,45,19,-31,49,121,0,-42,-97,-78,35,75,-3,-33,31,56,-53,-42,-73,-22,42,-42,-44,35,-54,215,125,-172,176,109,76,-111,14,-7,-18,30,27,56,-90,-14,-18,58,14,11,47,-105,-51,39,52,-133,13,-65,17,23,-22,-48,-48,63,25,-62,-178,-30,-18,-35,95,-74,-68,94,59,-37,-69,71,-45,85,-88,18,41,-18,2,24,-9,55,61,-28,-9,-73,71,25,55,99,46,1,-78,53,23,-51,-56,-82,49,-84,-59,36,36,-42,27,22,51,-3,59,75,14,-2,-121,70,-107,-75,0,37,61,1,35,102,-37,26,-52,30,-164,68,79,-44,142,23,-13,1,-97,-69,-21,137,-40,-7,-3,-57,57,42,-40,93,41,12,23,48,96,-102,-120,-3,-49,15,-39,31,-90,-59,-5,-61,-61,18,-2,-76,-37,83,-47,-151,64,-177,241,193,47,257,59,-56,83,41,-32,-32,-102,-54,-11,-43,33,-108,-42,-144,-38,78,-98,43,-78,75,47,-57,59,0,27,-20,-8,-49,65,144,149,208,20,25,-267,-222,-93,-13,-71,61,-83,-99,-51,-62,-107,53,-71,43,-2,-66,83,4,-82,16,14,-46,-74,-72,-9,-44,69,-32,-20,18,12,25,-6,-10,-85,1,36,19,3,110,176,129,78,104,72,-44,-80,-77,25,115,155,40,13,116,-43,-53,-76,13,-17,65,15,86,13,-6,-96,-61,135,27,-54,17,115,12,-100,21,-61,21,-4,15,9,39,7,1,14,-82,-49,121,113,127,11,-8,112,166,52,-8,-30,-48,45,132,64,-58,37,39,49,126,127,17,49,75,-129,-231,-192,-43,-20,-29,27,12,-32,39,60,13,28,165,132,174,31,-31,12,101,-79,49,78,75,-68,36,-64,-14,-63,-59,-34,-68,-181,153,170,210,-129,-45,173,-71,0,-154,17,25,-81,-42,-89,-56,-72,72,28,17,-2,13,-60,-23,50,38,-5,28,47,-46,85,31,-58,-32,49,76,22,50,3,80,81,-19,1,56,88,4,123,177,141,-83,-39,-17,-36,-65,-199,-13,181,112,64,-46,78,-113,-190,-154,76,26,-56,89,25,86,-165,-186,-179,33,36,-8,65,10,110,-68,13,-71,-66,72,85,30,-62,-16,0,5,-140,108,146,-43,144,151,223,19,-24,-81,2,-60,20,21,27,-22,-166,-160,-387,228,192,87,-57,90,46,85,-69,47,86,-68,-60,-118,-103,-97,-144,-32,-261,210,236,-13,140,63,272,59,-48,28,33,21,44,-78,26,-7,81,108,-1,-24,40,13,89,0,-109,12,8,9,-92,-63,27,-63,-57,-77,-52,41,47,-21,-61,-22,-6,49,-27,-75,33,-70,68,-26,-57,-12,-12,-83,3,-61,70,80,-9,23,-33,-61,-57,235,291,83,-129,72,-48,206,146,-5,54,-20,72,133,184,150,-80,21,75,-56,43,4,-25,132,-59,-163,-50,82,1,73,-29,98,128,-6,-127,-137,75,-9,-23,29,-36,-94,12,-27,15,64,16,-6,131,231,279,133,-141,-167,-3,-76,35,-33,77,-2,-44,-86,64,-49,67,218,57,-25,-27,-9,-178,1,157,-4,115,-9,-32,-53,-65,110,8,-39,-194,6,61,88,196,14,-315,-106,117,7,85,-26,73,-47,28,54,-10,-64
};
const PARA_DTYPE bias_l2[C2_OUT_CHANNELS] = {
		7,115,14,85,-60,-30,-22,-37,26,86,33,32,-11,-6,-20,-71
};
const PARA_DTYPE weight_l3[10][(C2_OUT_SIZE/2) * (C2_OUT_SIZE/2) * C2_OUT_CHANNELS] = {
		-262,225,-239,3,255,-188,26,43,192,-146,-128,39,-78,-134,-149,87,148,53,-104,284,-170,-160,43,174,-32,0,113,74,31,47,-97,-88,-21,-156,277,-145,230,190,312,-421,-89,163,217,-108,-206,83,-149,86,41,10,79,-154,-24,3,-201,47,4,231,155,-35,-291,89,-102,-210,108,-190,-31,210,147,292,146,236,115,-1,-54,37,130,-260,-65,-151,110,-116,159,-206,-238,-222,-244,-110,-57,24,0,55,153,-108,128,-97,42,-85,-186,290,-281,504,-164,97,115,145,-27,178,27,-92,37,84,183,0,19,44,72,63,-39,-108,-24,-318,57,78,121,-251,-57,78,438,121,-145,-29,-154,-83,-34,-35,233,-98,55,79,145,71,28,-226,-140,183,48,-236,42,-60,111,16,-125,-38,126,104,191,81,-317,-200,0,113,94,98,-121,116,111,-357,106,28,-37,189,64,-118,-260,130,79,-147,253,-17,217,-202,226,28,-15,49,248,432,284,25,-73,7,334,-47,42,12,-377,57,-317,-90,193,-76,37,-30,282,-153,184,182,90,17,-349,-20,224,224,169,177,-4,23,-1,-102,93,90,352,-15,-140,-111,320,8,-260,127,-191,-147,167,-112,-156,-135,-143,155,-57,-100,-230,0,-179,-113,132,81,-92,-54,-20,-3,2,58,160,-141,196,340,-78,-97,371,133,219,394,38,50,-294,-399,128,67,-287,-305,206,-23,18,338,86,246,-144,-265,39,-194,87,-87,-102,66,-77,-278,-53,-105,279,69,-200,-121,91,-214,-87,318,-136,-231,226,-29,-6,247,-99,-47,125,-92,-97,-45,-199,-195,-35,-76,-169,-146,78,-46,-165,-253,165,37,-105,95,101,72,-25,-55,-187,-45,-47,666,76,-127,-226,252,271,97,263,-626,-343,10,88,-87,205,14,-19,-67,-45,1,-163,72,331,192,-43,108,338,96,-41,-285,0,64,-130,185,-80,32,101,-210,75,4,250,-56,-129,-22,-45,330,40,-175,125,73,-26,93,-46,33,-24,4,-110,93,-85,-383,348,117,-19,-312,-174,-14,-214,23,-166,13,-303,-53,285,-261,157,106,-5,122,-28,200,-101,-29,48,-111,-238,-18,-233,40,-118,277,146,250,119,-593,237,48,-151,88,-73,-11,60,-176,221,-138,38,223,-67,116,-190,5,105,379,-366,-145,8,295,-143,-158,157,7,164,-33,57,207,19,93,178,396,355,105,221,109,100,-53,-6,-36,-126,153,37,67,-14,-52,-247,-238,57,8,-22,39,240,54,-219,-130,-66,-138,-291,-237,-79,-71,-70,156,182,55,-150,141,-219,-119,-112,78,-265,-4,176,105,86,-208,-141,-12,411,471,-198,-92,-70,349,3,-168,14,-180,-131,-288,-155,-187,-33,-342,-17,123,-117,-148,79,261,-98,188,-10,87,243,-216,224,274,19,207,45,-2,-103,4,-78,246,93,-130,248,154,-307,0,-39,-240,172,111,-73,-77,-184,-240,360,-133,83,-221,-54,11,26,-49,-101,142,-26,-183,-55,-70,-76,-226,360,-86,-306,17,-245,94,317,-31,-84,-221,1,214,-175,-83,95,63,-255,239,55,-100,-17,240,-320,-31,120,330,-90,-384,65,-6,43,-104,-2,-69,82,-45,86,-47,-281,-109,-7,146,-244,333,-241,-34,123,-174,-149,-285,-2,111,35,-87,-277,-20,139,-8,-67,110,-34,243,-119,-305,11,155,74,200
};
const PARA_DTYPE bias_l3[10] = {
		40,198,-20,-123,-79,-22,-15,67,-48,-38
};

